digraph Tree {
node [shape=box, style="rounded", color="black", fontname=helvetica] ;
edge [fontname=helvetica] ;
0 [label="average <= 24.0\nmse = 26.5\nsamples = 169\nvalue = 23.7"] ;
1 [label="temp_1 <= 20.2\nmse = 12.2\nsamples = 86\nvalue = 19.8"] ;
0 -> 1 [labeldistance=2.5, labelangle=45, headlabel="True"] ;
2 [label="temp_1 <= 17.1\nmse = 6.6\nsamples = 54\nvalue = 18.0"] ;
1 -> 2 ;
3 [label="average <= 18.6\nmse = 5.4\nsamples = 22\nvalue = 16.3"] ;
2 -> 3 ;
4 [label="average <= 15.5\nmse = 2.5\nsamples = 17\nvalue = 15.3"] ;
3 -> 4 ;
5 [label="mse = 0.0\nsamples = 1\nvalue = 9.2"] ;
4 -> 5 ;
6 [label="temp_2 <= 14.6\nmse = 1.2\nsamples = 16\nvalue = 15.5"] ;
4 -> 6 ;
7 [label="week_Fri <= 0.5\nmse = 0.7\nsamples = 4\nvalue = 14.3"] ;
6 -> 7 ;
8 [label="week_Tue <= 0.5\nmse = 0.2\nsamples = 3\nvalue = 14.0"] ;
7 -> 8 ;
9 [label="day <= 23.5\nmse = 0.0\nsamples = 2\nvalue = 14.2"] ;
8 -> 9 ;
10 [label="mse = 0.0\nsamples = 1\nvalue = 14.3"] ;
9 -> 10 ;
11 [label="mse = 0.0\nsamples = 1\nvalue = 14.2"] ;
9 -> 11 ;
12 [label="mse = -0.0\nsamples = 1\nvalue = 13.1"] ;
8 -> 12 ;
13 [label="mse = -0.0\nsamples = 1\nvalue = 16.0"] ;
7 -> 13 ;
14 [label="friend <= 22.0\nmse = 0.8\nsamples = 12\nvalue = 15.8"] ;
6 -> 14 ;
15 [label="average <= 17.8\nmse = 0.7\nsamples = 10\nvalue = 15.6"] ;
14 -> 15 ;
16 [label="day <= 28.0\nmse = 0.5\nsamples = 9\nvalue = 15.7"] ;
15 -> 16 ;
17 [label="day <= 26.0\nmse = 0.3\nsamples = 8\nvalue = 15.9"] ;
16 -> 17 ;
18 [label="day <= 20.5\nmse = 0.2\nsamples = 7\nvalue = 15.7"] ;
17 -> 18 ;
19 [label="temp_2 <= 17.1\nmse = 0.1\nsamples = 5\nvalue = 15.9"] ;
18 -> 19 ;
20 [label="friend <= 20.2\nmse = 0.0\nsamples = 3\nvalue = 15.6"] ;
19 -> 20 ;
21 [label="month <= 6.5\nmse = 0.0\nsamples = 2\nvalue = 15.6"] ;
20 -> 21 ;
22 [label="mse = 0.0\nsamples = 1\nvalue = 15.6"] ;
21 -> 22 ;
23 [label="mse = -0.0\nsamples = 1\nvalue = 15.5"] ;
21 -> 23 ;
24 [label="mse = 0.0\nsamples = 1\nvalue = 15.7"] ;
20 -> 24 ;
25 [label="month <= 2.0\nmse = 0.0\nsamples = 2\nvalue = 16.2"] ;
19 -> 25 ;
26 [label="mse = 0.0\nsamples = 1\nvalue = 16.0"] ;
25 -> 26 ;
27 [label="mse = 0.0\nsamples = 1\nvalue = 16.4"] ;
25 -> 27 ;
28 [label="friend <= 16.6\nmse = 0.0\nsamples = 2\nvalue = 15.0"] ;
18 -> 28 ;
29 [label="mse = 0.0\nsamples = 1\nvalue = 14.8"] ;
28 -> 29 ;
30 [label="mse = 0.0\nsamples = 1\nvalue = 15.2"] ;
28 -> 30 ;
31 [label="mse = 0.0\nsamples = 1\nvalue = 16.6"] ;
17 -> 31 ;
32 [label="mse = -0.0\nsamples = 1\nvalue = 14.4"] ;
16 -> 32 ;
33 [label="mse = -0.0\nsamples = 1\nvalue = 13.7"] ;
15 -> 33 ;
34 [label="temp_2 <= 18.2\nmse = 0.1\nsamples = 2\nvalue = 16.8"] ;
14 -> 34 ;
35 [label="mse = 0.0\nsamples = 1\nvalue = 17.1"] ;
34 -> 35 ;
36 [label="mse = -0.0\nsamples = 1\nvalue = 16.6"] ;
34 -> 36 ;
37 [label="month <= 3.5\nmse = 1.0\nsamples = 5\nvalue = 19.5"] ;
3 -> 37 ;
38 [label="friend <= 22.6\nmse = 0.0\nsamples = 2\nvalue = 17.9"] ;
37 -> 38 ;
39 [label="mse = 0.0\nsamples = 1\nvalue = 18.1"] ;
38 -> 39 ;
40 [label="mse = 0.0\nsamples = 1\nvalue = 17.7"] ;
38 -> 40 ;
41 [label="temp_2 <= 19.7\nmse = 0.4\nsamples = 3\nvalue = 20.0"] ;
37 -> 41 ;
42 [label="temp_1 <= 15.3\nmse = 0.0\nsamples = 2\nvalue = 20.2"] ;
41 -> 42 ;
43 [label="mse = 0.0\nsamples = 1\nvalue = 20.4"] ;
42 -> 43 ;
44 [label="mse = 0.0\nsamples = 1\nvalue = 20.1"] ;
42 -> 44 ;
45 [label="mse = 0.0\nsamples = 1\nvalue = 18.5"] ;
41 -> 45 ;
46 [label="temp_2 <= 18.3\nmse = 3.7\nsamples = 32\nvalue = 19.3"] ;
2 -> 46 ;
47 [label="friend <= 16.1\nmse = 2.3\nsamples = 13\nvalue = 18.1"] ;
46 -> 47 ;
48 [label="friend <= 12.9\nmse = 0.8\nsamples = 3\nvalue = 15.6"] ;
47 -> 48 ;
49 [label="mse = 0.0\nsamples = 1\nvalue = 16.9"] ;
48 -> 49 ;
50 [label="month <= 2.5\nmse = 0.0\nsamples = 2\nvalue = 15.0"] ;
48 -> 50 ;
51 [label="mse = 0.0\nsamples = 1\nvalue = 15.0"] ;
50 -> 51 ;
52 [label="mse = 0.0\nsamples = 1\nvalue = 14.9"] ;
50 -> 52 ;
53 [label="week_Sun <= 0.5\nmse = 1.1\nsamples = 10\nvalue = 18.7"] ;
47 -> 53 ;
54 [label="average <= 20.3\nmse = 0.5\nsamples = 9\nvalue = 18.3"] ;
53 -> 54 ;
55 [label="week_Wed <= 0.5\nmse = 0.1\nsamples = 7\nvalue = 18.1"] ;
54 -> 55 ;
56 [label="friend <= 23.6\nmse = 0.0\nsamples = 6\nvalue = 18.1"] ;
55 -> 56 ;
57 [label="temp_2 <= 15.2\nmse = 0.0\nsamples = 5\nvalue = 18.0"] ;
56 -> 57 ;
58 [label="mse = 0.0\nsamples = 1\nvalue = 18.4"] ;
57 -> 58 ;
59 [label="week_Sat <= 0.5\nmse = 0.0\nsamples = 4\nvalue = 18.0"] ;
57 -> 59 ;
60 [label="day <= 27.0\nmse = 0.0\nsamples = 3\nvalue = 18.0"] ;
59 -> 60 ;
61 [label="mse = 0.0\nsamples = 2\nvalue = 18.0"] ;
60 -> 61 ;
62 [label="mse = -0.0\nsamples = 1\nvalue = 17.9"] ;
60 -> 62 ;
63 [label="mse = 0.0\nsamples = 1\nvalue = 18.1"] ;
59 -> 63 ;
64 [label="mse = 0.0\nsamples = 1\nvalue = 18.5"] ;
56 -> 64 ;
65 [label="mse = -0.0\nsamples = 1\nvalue = 17.4"] ;
55 -> 65 ;
66 [label="temp_2 <= 16.8\nmse = 0.1\nsamples = 2\nvalue = 19.8"] ;
54 -> 66 ;
67 [label="mse = 0.0\nsamples = 1\nvalue = 20.1"] ;
66 -> 67 ;
68 [label="mse = -0.0\nsamples = 1\nvalue = 19.5"] ;
66 -> 68 ;
69 [label="mse = -0.0\nsamples = 1\nvalue = 20.7"] ;
53 -> 69 ;
70 [label="friend <= 15.4\nmse = 3.4\nsamples = 19\nvalue = 19.9"] ;
46 -> 70 ;
71 [label="day <= 16.5\nmse = 4.8\nsamples = 4\nvalue = 21.9"] ;
70 -> 71 ;
72 [label="average <= 19.1\nmse = 0.9\nsamples = 2\nvalue = 23.4"] ;
71 -> 72 ;
73 [label="mse = 0.0\nsamples = 1\nvalue = 22.8"] ;
72 -> 73 ;
74 [label="mse = 0.0\nsamples = 1\nvalue = 25.0"] ;
72 -> 74 ;
75 [label="month <= 6.5\nmse = 0.0\nsamples = 2\nvalue = 19.0"] ;
71 -> 75 ;
76 [label="mse = 0.0\nsamples = 1\nvalue = 18.8"] ;
75 -> 76 ;
77 [label="mse = 0.0\nsamples = 1\nvalue = 19.2"] ;
75 -> 77 ;
78 [label="temp_2 <= 18.6\nmse = 1.9\nsamples = 15\nvalue = 19.4"] ;
70 -> 78 ;
79 [label="month <= 6.0\nmse = 0.6\nsamples = 2\nvalue = 21.6"] ;
78 -> 79 ;
80 [label="mse = 0.0\nsamples = 1\nvalue = 22.4"] ;
79 -> 80 ;
81 [label="mse = 0.0\nsamples = 1\nvalue = 20.9"] ;
79 -> 81 ;
82 [label="friend <= 19.1\nmse = 1.0\nsamples = 13\nvalue = 19.0"] ;
78 -> 82 ;
83 [label="average <= 20.1\nmse = 1.1\nsamples = 4\nvalue = 17.7"] ;
82 -> 83 ;
84 [label="friend <= 18.1\nmse = 0.2\nsamples = 3\nvalue = 18.3"] ;
83 -> 84 ;
85 [label="mse = 0.0\nsamples = 2\nvalue = 18.6"] ;
84 -> 85 ;
86 [label="mse = -0.0\nsamples = 1\nvalue = 17.6"] ;
84 -> 86 ;
87 [label="mse = 0.0\nsamples = 1\nvalue = 16.0"] ;
83 -> 87 ;
88 [label="day <= 26.0\nmse = 0.5\nsamples = 9\nvalue = 19.3"] ;
82 -> 88 ;
89 [label="day <= 19.0\nmse = 0.2\nsamples = 8\nvalue = 19.4"] ;
88 -> 89 ;
90 [label="month <= 4.5\nmse = 0.2\nsamples = 5\nvalue = 19.7"] ;
89 -> 90 ;
91 [label="day <= 15.0\nmse = 0.1\nsamples = 3\nvalue = 19.5"] ;
90 -> 91 ;
92 [label="day <= 11.0\nmse = 0.0\nsamples = 2\nvalue = 19.2"] ;
91 -> 92 ;
93 [label="mse = 0.0\nsamples = 1\nvalue = 19.3"] ;
92 -> 93 ;
94 [label="mse = 0.0\nsamples = 1\nvalue = 19.0"] ;
92 -> 94 ;
95 [label="mse = 0.0\nsamples = 1\nvalue = 19.7"] ;
91 -> 95 ;
96 [label="friend <= 22.8\nmse = 0.1\nsamples = 2\nvalue = 20.2"] ;
90 -> 96 ;
97 [label="mse = 0.0\nsamples = 1\nvalue = 20.6"] ;
96 -> 97 ;
98 [label="mse = 0.0\nsamples = 1\nvalue = 20.0"] ;
96 -> 98 ;
99 [label="week_Wed <= 0.5\nmse = 0.1\nsamples = 3\nvalue = 19.0"] ;
89 -> 99 ;
100 [label="friend <= 23.0\nmse = 0.0\nsamples = 2\nvalue = 18.8"] ;
99 -> 100 ;
101 [label="mse = 0.0\nsamples = 1\nvalue = 19.0"] ;
100 -> 101 ;
102 [label="mse = -0.0\nsamples = 1\nvalue = 18.7"] ;
100 -> 102 ;
103 [label="mse = -0.0\nsamples = 1\nvalue = 19.4"] ;
99 -> 103 ;
104 [label="mse = 0.0\nsamples = 1\nvalue = 17.4"] ;
88 -> 104 ;
105 [label="temp_2 <= 19.0\nmse = 8.4\nsamples = 32\nvalue = 22.6"] ;
1 -> 105 ;
106 [label="day <= 16.5\nmse = 3.6\nsamples = 2\nvalue = 17.6"] ;
105 -> 106 ;
107 [label="mse = 0.0\nsamples = 1\nvalue = 19.5"] ;
106 -> 107 ;
108 [label="mse = -0.0\nsamples = 1\nvalue = 15.7"] ;
106 -> 108 ;
109 [label="month <= 10.5\nmse = 6.6\nsamples = 30\nvalue = 23.0"] ;
105 -> 109 ;
110 [label="day <= 4.0\nmse = 5.1\nsamples = 21\nvalue = 23.6"] ;
109 -> 110 ;
111 [label="friend <= 24.4\nmse = 3.9\nsamples = 4\nvalue = 26.0"] ;
110 -> 111 ;
112 [label="friend <= 22.4\nmse = 0.6\nsamples = 3\nvalue = 26.7"] ;
111 -> 112 ;
113 [label="day <= 2.0\nmse = 0.0\nsamples = 2\nvalue = 27.1"] ;
112 -> 113 ;
114 [label="mse = -0.0\nsamples = 1\nvalue = 27.1"] ;
113 -> 114 ;
115 [label="mse = 0.0\nsamples = 1\nvalue = 27.0"] ;
113 -> 115 ;
116 [label="mse = -0.0\nsamples = 1\nvalue = 24.9"] ;
112 -> 116 ;
117 [label="mse = 0.0\nsamples = 1\nvalue = 21.5"] ;
111 -> 117 ;
118 [label="day <= 26.0\nmse = 3.9\nsamples = 17\nvalue = 23.1"] ;
110 -> 118 ;
119 [label="average <= 23.7\nmse = 2.0\nsamples = 12\nvalue = 22.2"] ;
118 -> 119 ;
120 [label="average <= 22.3\nmse = 1.3\nsamples = 11\nvalue = 22.5"] ;
119 -> 120 ;
121 [label="temp_2 <= 20.8\nmse = 0.8\nsamples = 6\nvalue = 21.7"] ;
120 -> 121 ;
122 [label="mse = 0.0\nsamples = 1\nvalue = 23.0"] ;
121 -> 122 ;
123 [label="month <= 7.0\nmse = 0.0\nsamples = 5\nvalue = 21.1"] ;
121 -> 123 ;
124 [label="day <= 7.0\nmse = 0.0\nsamples = 3\nvalue = 21.0"] ;
123 -> 124 ;
125 [label="mse = 0.0\nsamples = 1\nvalue = 20.8"] ;
124 -> 125 ;
126 [label="month <= 3.5\nmse = 0.0\nsamples = 2\nvalue = 21.1"] ;
124 -> 126 ;
127 [label="mse = 0.0\nsamples = 1\nvalue = 21.0"] ;
126 -> 127 ;
128 [label="mse = 0.0\nsamples = 1\nvalue = 21.1"] ;
126 -> 128 ;
129 [label="temp_2 <= 21.8\nmse = 0.0\nsamples = 2\nvalue = 21.4"] ;
123 -> 129 ;
130 [label="mse = 0.0\nsamples = 1\nvalue = 21.3"] ;
129 -> 130 ;
131 [label="mse = -0.0\nsamples = 1\nvalue = 21.4"] ;
129 -> 131 ;
132 [label="temp_1 <= 24.1\nmse = 0.6\nsamples = 5\nvalue = 23.3"] ;
120 -> 132 ;
133 [label="average <= 23.1\nmse = 0.3\nsamples = 3\nvalue = 22.9"] ;
132 -> 133 ;
134 [label="mse = 0.0\nsamples = 1\nvalue = 21.6"] ;
133 -> 134 ;
135 [label="week_Mon <= 0.5\nmse = 0.0\nsamples = 2\nvalue = 23.1"] ;
133 -> 135 ;
136 [label="mse = 0.0\nsamples = 1\nvalue = 23.0"] ;
135 -> 136 ;
137 [label="mse = -0.0\nsamples = 1\nvalue = 23.4"] ;
135 -> 137 ;
138 [label="friend <= 23.4\nmse = 0.2\nsamples = 2\nvalue = 24.2"] ;
132 -> 138 ;
139 [label="mse = 0.0\nsamples = 1\nvalue = 24.8"] ;
138 -> 139 ;
140 [label="mse = 0.0\nsamples = 1\nvalue = 23.9"] ;
138 -> 140 ;
141 [label="mse = 0.0\nsamples = 1\nvalue = 19.4"] ;
119 -> 141 ;
142 [label="month <= 7.0\nmse = 3.0\nsamples = 5\nvalue = 24.9"] ;
118 -> 142 ;
143 [label="average <= 19.7\nmse = 1.1\nsamples = 3\nvalue = 26.1"] ;
142 -> 143 ;
144 [label="mse = 0.0\nsamples = 1\nvalue = 23.9"] ;
143 -> 144 ;
145 [label="day <= 28.5\nmse = 0.1\nsamples = 2\nvalue = 26.6"] ;
143 -> 145 ;
146 [label="mse = 0.0\nsamples = 1\nvalue = 26.3"] ;
145 -> 146 ;
147 [label="mse = 0.0\nsamples = 1\nvalue = 27.0"] ;
145 -> 147 ;
148 [label="mse = 0.0\nsamples = 2\nvalue = 23.0"] ;
142 -> 148 ;
149 [label="temp_1 <= 20.9\nmse = 5.8\nsamples = 9\nvalue = 20.9"] ;
109 -> 149 ;
150 [label="mse = 0.0\nsamples = 1\nvalue = 14.8"] ;
149 -> 150 ;
151 [label="average <= 18.5\nmse = 2.7\nsamples = 8\nvalue = 21.4"] ;
149 -> 151 ;
152 [label="mse = 0.0\nsamples = 1\nvalue = 17.5"] ;
151 -> 152 ;
153 [label="week_Thu <= 0.5\nmse = 1.3\nsamples = 7\nvalue = 21.8"] ;
151 -> 153 ;
154 [label="temp_1 <= 24.0\nmse = 0.6\nsamples = 6\nvalue = 22.3"] ;
153 -> 154 ;
155 [label="week_Tue <= 0.5\nmse = 0.1\nsamples = 4\nvalue = 21.9"] ;
154 -> 155 ;
156 [label="temp_2 <= 21.1\nmse = 0.0\nsamples = 2\nvalue = 21.5"] ;
155 -> 156 ;
157 [label="mse = 0.0\nsamples = 1\nvalue = 21.4"] ;
156 -> 157 ;
158 [label="mse = 0.0\nsamples = 1\nvalue = 21.6"] ;
156 -> 158 ;
159 [label="temp_2 <= 23.6\nmse = 0.0\nsamples = 2\nvalue = 22.2"] ;
155 -> 159 ;
160 [label="mse = 0.0\nsamples = 1\nvalue = 22.2"] ;
159 -> 160 ;
161 [label="mse = -0.0\nsamples = 1\nvalue = 22.3"] ;
159 -> 161 ;
162 [label="temp_1 <= 24.8\nmse = 0.0\nsamples = 2\nvalue = 23.4"] ;
154 -> 162 ;
163 [label="mse = 0.0\nsamples = 1\nvalue = 23.4"] ;
162 -> 163 ;
164 [label="mse = 0.0\nsamples = 1\nvalue = 23.5"] ;
162 -> 164 ;
165 [label="mse = 0.0\nsamples = 1\nvalue = 20.0"] ;
153 -> 165 ;
166 [label="average <= 28.4\nmse = 7.7\nsamples = 83\nvalue = 27.9"] ;
0 -> 166 [labeldistance=2.5, labelangle=-45, headlabel="False"] ;
167 [label="temp_1 <= 27.0\nmse = 5.7\nsamples = 41\nvalue = 26.2"] ;
166 -> 167 ;
168 [label="temp_2 <= 20.8\nmse = 3.9\nsamples = 23\nvalue = 25.0"] ;
167 -> 168 ;
169 [label="mse = 0.0\nsamples = 1\nvalue = 19.0"] ;
168 -> 169 ;
170 [label="friend <= 21.4\nmse = 2.2\nsamples = 22\nvalue = 25.3"] ;
168 -> 170 ;
171 [label="week_Fri <= 0.5\nmse = 0.1\nsamples = 2\nvalue = 22.4"] ;
170 -> 171 ;
172 [label="mse = 0.0\nsamples = 1\nvalue = 22.7"] ;
171 -> 172 ;
173 [label="mse = -0.0\nsamples = 1\nvalue = 22.0"] ;
171 -> 173 ;
174 [label="friend <= 23.6\nmse = 1.8\nsamples = 20\nvalue = 25.4"] ;
170 -> 174 ;
175 [label="week_Sun <= 0.5\nmse = 0.2\nsamples = 4\nvalue = 26.8"] ;
174 -> 175 ;
176 [label="week_Wed <= 0.5\nmse = 0.0\nsamples = 3\nvalue = 27.2"] ;
175 -> 176 ;
177 [label="week_Mon <= 0.5\nmse = 0.0\nsamples = 2\nvalue = 27.4"] ;
176 -> 177 ;
178 [label="mse = 0.0\nsamples = 1\nvalue = 27.3"] ;
177 -> 178 ;
179 [label="mse = 0.0\nsamples = 1\nvalue = 27.4"] ;
177 -> 179 ;
180 [label="mse = -0.0\nsamples = 1\nvalue = 26.9"] ;
176 -> 180 ;
181 [label="mse = -0.0\nsamples = 1\nvalue = 26.3"] ;
175 -> 181 ;
182 [label="day <= 18.5\nmse = 1.6\nsamples = 16\nvalue = 25.1"] ;
174 -> 182 ;
183 [label="temp_1 <= 26.7\nmse = 1.0\nsamples = 10\nvalue = 24.5"] ;
182 -> 183 ;
184 [label="friend <= 29.1\nmse = 0.3\nsamples = 9\nvalue = 24.7"] ;
183 -> 184 ;
185 [label="week_Tue <= 0.5\nmse = 0.2\nsamples = 7\nvalue = 24.9"] ;
184 -> 185 ;
186 [label="friend <= 27.5\nmse = 0.1\nsamples = 5\nvalue = 24.7"] ;
185 -> 186 ;
187 [label="average <= 26.9\nmse = 0.0\nsamples = 3\nvalue = 25.0"] ;
186 -> 187 ;
188 [label="temp_1 <= 23.8\nmse = 0.0\nsamples = 2\nvalue = 25.0"] ;
187 -> 188 ;
189 [label="mse = 0.0\nsamples = 1\nvalue = 25.0"] ;
188 -> 189 ;
190 [label="mse = 0.0\nsamples = 1\nvalue = 25.1"] ;
188 -> 190 ;
191 [label="mse = -0.0\nsamples = 1\nvalue = 24.7"] ;
187 -> 191 ;
192 [label="day <= 6.5\nmse = 0.0\nsamples = 2\nvalue = 24.5"] ;
186 -> 192 ;
193 [label="mse = 0.0\nsamples = 1\nvalue = 24.5"] ;
192 -> 193 ;
194 [label="mse = 0.0\nsamples = 1\nvalue = 24.5"] ;
192 -> 194 ;
195 [label="day <= 9.0\nmse = 0.0\nsamples = 2\nvalue = 25.4"] ;
185 -> 195 ;
196 [label="mse = 0.0\nsamples = 1\nvalue = 25.5"] ;
195 -> 196 ;
197 [label="mse = -0.0\nsamples = 1\nvalue = 25.2"] ;
195 -> 197 ;
198 [label="mse = -0.0\nsamples = 2\nvalue = 23.9"] ;
184 -> 198 ;
199 [label="mse = 0.0\nsamples = 1\nvalue = 21.0"] ;
183 -> 199 ;
200 [label="temp_2 <= 23.5\nmse = 0.9\nsamples = 6\nvalue = 26.1"] ;
182 -> 200 ;
201 [label="mse = 0.0\nsamples = 1\nvalue = 28.2"] ;
200 -> 201 ;
202 [label="average <= 27.6\nmse = 0.6\nsamples = 5\nvalue = 25.9"] ;
200 -> 202 ;
203 [label="day <= 29.0\nmse = 0.2\nsamples = 4\nvalue = 25.4"] ;
202 -> 203 ;
204 [label="week_Thu <= 0.5\nmse = 0.0\nsamples = 3\nvalue = 25.5"] ;
203 -> 204 ;
205 [label="temp_2 <= 25.8\nmse = 0.0\nsamples = 2\nvalue = 25.3"] ;
204 -> 205 ;
206 [label="mse = 0.0\nsamples = 1\nvalue = 25.4"] ;
205 -> 206 ;
207 [label="mse = -0.0\nsamples = 1\nvalue = 25.2"] ;
205 -> 207 ;
208 [label="mse = 0.0\nsamples = 1\nvalue = 25.7"] ;
204 -> 208 ;
209 [label="mse = 0.0\nsamples = 1\nvalue = 24.5"] ;
203 -> 209 ;
210 [label="mse = 0.0\nsamples = 1\nvalue = 26.8"] ;
202 -> 210 ;
211 [label="day <= 7.5\nmse = 4.0\nsamples = 18\nvalue = 27.7"] ;
167 -> 211 ;
212 [label="average <= 27.2\nmse = 4.4\nsamples = 4\nvalue = 29.7"] ;
211 -> 212 ;
213 [label="temp_2 <= 26.7\nmse = 1.6\nsamples = 3\nvalue = 30.4"] ;
212 -> 213 ;
214 [label="week_Sat <= 0.5\nmse = 0.4\nsamples = 2\nvalue = 29.9"] ;
213 -> 214 ;
215 [label="mse = 0.0\nsamples = 1\nvalue = 30.2"] ;
214 -> 215 ;
216 [label="mse = -0.0\nsamples = 1\nvalue = 28.7"] ;
214 -> 216 ;
217 [label="mse = 0.0\nsamples = 1\nvalue = 33.0"] ;
213 -> 217 ;
218 [label="mse = 0.0\nsamples = 1\nvalue = 25.5"] ;
212 -> 218 ;
219 [label="month <= 9.5\nmse = 2.5\nsamples = 14\nvalue = 27.1"] ;
211 -> 219 ;
220 [label="temp_1 <= 30.3\nmse = 1.5\nsamples = 12\nvalue = 27.4"] ;
219 -> 220 ;
221 [label="week_Thu <= 0.5\nmse = 1.3\nsamples = 9\nvalue = 27.0"] ;
220 -> 221 ;
222 [label="day <= 19.0\nmse = 0.8\nsamples = 7\nvalue = 26.8"] ;
221 -> 222 ;
223 [label="week_Wed <= 0.5\nmse = 0.8\nsamples = 2\nvalue = 26.1"] ;
222 -> 223 ;
224 [label="mse = 0.0\nsamples = 1\nvalue = 25.4"] ;
223 -> 224 ;
225 [label="mse = -0.0\nsamples = 1\nvalue = 27.2"] ;
223 -> 225 ;
226 [label="friend <= 20.7\nmse = 0.5\nsamples = 5\nvalue = 27.1"] ;
222 -> 226 ;
227 [label="mse = 0.0\nsamples = 1\nvalue = 25.2"] ;
226 -> 227 ;
228 [label="friend <= 25.7\nmse = 0.1\nsamples = 4\nvalue = 27.3"] ;
226 -> 228 ;
229 [label="week_Sat <= 0.5\nmse = 0.0\nsamples = 2\nvalue = 27.6"] ;
228 -> 229 ;
230 [label="mse = 0.0\nsamples = 1\nvalue = 27.7"] ;
229 -> 230 ;
231 [label="mse = 0.0\nsamples = 1\nvalue = 27.6"] ;
229 -> 231 ;
232 [label="week_Sat <= 0.5\nmse = 0.0\nsamples = 2\nvalue = 27.1"] ;
228 -> 232 ;
233 [label="mse = 0.0\nsamples = 1\nvalue = 27.1"] ;
232 -> 233 ;
234 [label="mse = -0.0\nsamples = 1\nvalue = 26.9"] ;
232 -> 234 ;
235 [label="day <= 19.0\nmse = 0.6\nsamples = 2\nvalue = 29.0"] ;
221 -> 235 ;
236 [label="mse = 0.0\nsamples = 1\nvalue = 28.2"] ;
235 -> 236 ;
237 [label="mse = 0.0\nsamples = 1\nvalue = 29.7"] ;
235 -> 237 ;
238 [label="average <= 27.0\nmse = 0.2\nsamples = 3\nvalue = 28.6"] ;
220 -> 238 ;
239 [label="mse = 0.0\nsamples = 1\nvalue = 29.5"] ;
238 -> 239 ;
240 [label="day <= 16.5\nmse = 0.0\nsamples = 2\nvalue = 28.4"] ;
238 -> 240 ;
241 [label="mse = -0.0\nsamples = 1\nvalue = 28.6"] ;
240 -> 241 ;
242 [label="mse = -0.0\nsamples = 1\nvalue = 28.2"] ;
240 -> 242 ;
243 [label="average <= 25.4\nmse = 2.0\nsamples = 2\nvalue = 24.4"] ;
219 -> 243 ;
244 [label="mse = 0.0\nsamples = 1\nvalue = 22.4"] ;
243 -> 244 ;
245 [label="mse = 0.0\nsamples = 1\nvalue = 25.4"] ;
243 -> 245 ;
246 [label="temp_1 <= 30.8\nmse = 2.3\nsamples = 42\nvalue = 30.0"] ;
166 -> 246 ;
247 [label="month <= 9.5\nmse = 1.9\nsamples = 28\nvalue = 29.5"] ;
246 -> 247 ;
248 [label="temp_1 <= 28.6\nmse = 1.5\nsamples = 27\nvalue = 29.4"] ;
247 -> 248 ;
249 [label="temp_1 <= 27.2\nmse = 0.9\nsamples = 9\nvalue = 28.1"] ;
248 -> 249 ;
250 [label="average <= 28.9\nmse = 1.0\nsamples = 3\nvalue = 27.0"] ;
249 -> 250 ;
251 [label="mse = 0.0\nsamples = 1\nvalue = 28.0"] ;
250 -> 251 ;
252 [label="week_Mon <= 0.5\nmse = 0.0\nsamples = 2\nvalue = 26.0"] ;
250 -> 252 ;
253 [label="mse = 0.0\nsamples = 1\nvalue = 25.9"] ;
252 -> 253 ;
254 [label="mse = 0.0\nsamples = 1\nvalue = 26.2"] ;
252 -> 254 ;
255 [label="day <= 3.5\nmse = 0.0\nsamples = 6\nvalue = 28.6"] ;
249 -> 255 ;
256 [label="mse = 0.0\nsamples = 1\nvalue = 29.0"] ;
255 -> 256 ;
257 [label="friend <= 27.4\nmse = 0.0\nsamples = 5\nvalue = 28.6"] ;
255 -> 257 ;
258 [label="mse = 0.0\nsamples = 1\nvalue = 28.4"] ;
257 -> 258 ;
259 [label="friend <= 31.6\nmse = 0.0\nsamples = 4\nvalue = 28.6"] ;
257 -> 259 ;
260 [label="mse = 0.0\nsamples = 2\nvalue = 28.7"] ;
259 -> 260 ;
261 [label="month <= 6.5\nmse = 0.0\nsamples = 2\nvalue = 28.6"] ;
259 -> 261 ;
262 [label="mse = 0.0\nsamples = 1\nvalue = 28.5"] ;
261 -> 262 ;
263 [label="mse = 0.0\nsamples = 1\nvalue = 28.6"] ;
261 -> 263 ;
264 [label="week_Wed <= 0.5\nmse = 0.9\nsamples = 18\nvalue = 29.9"] ;
248 -> 264 ;
265 [label="day <= 4.5\nmse = 0.6\nsamples = 17\nvalue = 29.8"] ;
264 -> 265 ;
266 [label="temp_1 <= 29.5\nmse = 0.4\nsamples = 3\nvalue = 28.9"] ;
265 -> 266 ;
267 [label="month <= 8.5\nmse = 0.0\nsamples = 2\nvalue = 29.2"] ;
266 -> 267 ;
268 [label="mse = 0.0\nsamples = 1\nvalue = 29.3"] ;
267 -> 268 ;
269 [label="mse = 0.0\nsamples = 1\nvalue = 29.0"] ;
267 -> 269 ;
270 [label="mse = 0.0\nsamples = 1\nvalue = 27.7"] ;
266 -> 270 ;
271 [label="friend <= 34.6\nmse = 0.4\nsamples = 14\nvalue = 30.0"] ;
265 -> 271 ;
272 [label="temp_2 <= 29.2\nmse = 0.2\nsamples = 12\nvalue = 29.8"] ;
271 -> 272 ;
273 [label="day <= 26.5\nmse = 0.1\nsamples = 7\nvalue = 29.5"] ;
272 -> 273 ;
274 [label="average <= 29.3\nmse = 0.0\nsamples = 6\nvalue = 29.4"] ;
273 -> 274 ;
275 [label="friend <= 31.2\nmse = 0.0\nsamples = 3\nvalue = 29.1"] ;
274 -> 275 ;
276 [label="mse = -0.0\nsamples = 2\nvalue = 29.0"] ;
275 -> 276 ;
277 [label="mse = -0.0\nsamples = 1\nvalue = 29.4"] ;
275 -> 277 ;
278 [label="average <= 30.2\nmse = 0.0\nsamples = 3\nvalue = 29.5"] ;
274 -> 278 ;
279 [label="mse = 0.0\nsamples = 2\nvalue = 29.5"] ;
278 -> 279 ;
280 [label="mse = -0.0\nsamples = 1\nvalue = 29.8"] ;
278 -> 280 ;
281 [label="mse = -0.0\nsamples = 1\nvalue = 30.2"] ;
273 -> 281 ;
282 [label="temp_1 <= 29.2\nmse = 0.0\nsamples = 5\nvalue = 30.3"] ;
272 -> 282 ;
283 [label="mse = 0.0\nsamples = 1\nvalue = 30.7"] ;
282 -> 283 ;
284 [label="temp_1 <= 30.2\nmse = 0.0\nsamples = 4\nvalue = 30.3"] ;
282 -> 284 ;
285 [label="friend <= 33.5\nmse = 0.0\nsamples = 2\nvalue = 30.1"] ;
284 -> 285 ;
286 [label="mse = 0.0\nsamples = 1\nvalue = 30.0"] ;
285 -> 286 ;
287 [label="mse = -0.0\nsamples = 1\nvalue = 30.2"] ;
285 -> 287 ;
288 [label="week_Tue <= 0.5\nmse = 0.0\nsamples = 2\nvalue = 30.4"] ;
284 -> 288 ;
289 [label="mse = 0.0\nsamples = 1\nvalue = 30.5"] ;
288 -> 289 ;
290 [label="mse = 0.0\nsamples = 1\nvalue = 30.3"] ;
288 -> 290 ;
291 [label="friend <= 35.7\nmse = 0.0\nsamples = 2\nvalue = 31.3"] ;
271 -> 291 ;
292 [label="mse = 0.0\nsamples = 1\nvalue = 31.3"] ;
291 -> 292 ;
293 [label="mse = -0.0\nsamples = 1\nvalue = 31.3"] ;
291 -> 293 ;
294 [label="mse = 0.0\nsamples = 1\nvalue = 32.7"] ;
264 -> 294 ;
295 [label="mse = -0.0\nsamples = 1\nvalue = 32.6"] ;
247 -> 295 ;
296 [label="average <= 30.0\nmse = 1.2\nsamples = 14\nvalue = 31.2"] ;
246 -> 296 ;
297 [label="month <= 8.5\nmse = 0.5\nsamples = 6\nvalue = 30.4"] ;
296 -> 297 ;
298 [label="average <= 29.8\nmse = 0.1\nsamples = 4\nvalue = 30.8"] ;
297 -> 298 ;
299 [label="temp_2 <= 33.0\nmse = 0.0\nsamples = 2\nvalue = 30.6"] ;
298 -> 299 ;
300 [label="mse = 0.0\nsamples = 1\nvalue = 30.5"] ;
299 -> 300 ;
301 [label="mse = -0.0\nsamples = 1\nvalue = 30.7"] ;
299 -> 301 ;
302 [label="day <= 22.0\nmse = 0.0\nsamples = 2\nvalue = 31.0"] ;
298 -> 302 ;
303 [label="mse = 0.0\nsamples = 1\nvalue = 30.9"] ;
302 -> 303 ;
304 [label="mse = 0.0\nsamples = 1\nvalue = 31.2"] ;
302 -> 304 ;
305 [label="week_Mon <= 0.5\nmse = 0.2\nsamples = 2\nvalue = 29.4"] ;
297 -> 305 ;
306 [label="mse = 0.0\nsamples = 1\nvalue = 29.8"] ;
305 -> 306 ;
307 [label="mse = 0.0\nsamples = 1\nvalue = 29.0"] ;
305 -> 307 ;
308 [label="temp_2 <= 31.1\nmse = 0.9\nsamples = 8\nvalue = 31.8"] ;
296 -> 308 ;
309 [label="temp_1 <= 31.3\nmse = 0.3\nsamples = 5\nvalue = 32.4"] ;
308 -> 309 ;
310 [label="day <= 23.5\nmse = 0.1\nsamples = 2\nvalue = 31.9"] ;
309 -> 310 ;
311 [label="mse = 0.0\nsamples = 1\nvalue = 32.3"] ;
310 -> 311 ;
312 [label="mse = 0.0\nsamples = 1\nvalue = 31.7"] ;
310 -> 312 ;
313 [label="friend <= 31.7\nmse = 0.0\nsamples = 3\nvalue = 32.9"] ;
309 -> 313 ;
314 [label="month <= 7.5\nmse = 0.0\nsamples = 2\nvalue = 32.8"] ;
313 -> 314 ;
315 [label="mse = 0.0\nsamples = 1\nvalue = 32.8"] ;
314 -> 315 ;
316 [label="mse = 0.0\nsamples = 1\nvalue = 32.7"] ;
314 -> 316 ;
317 [label="mse = -0.0\nsamples = 1\nvalue = 33.2"] ;
313 -> 317 ;
318 [label="temp_2 <= 32.0\nmse = 0.1\nsamples = 3\nvalue = 30.6"] ;
308 -> 318 ;
319 [label="mse = -0.0\nsamples = 2\nvalue = 30.8"] ;
318 -> 319 ;
320 [label="mse = -0.0\nsamples = 1\nvalue = 30.3"] ;
318 -> 320 ;
}